[1,0,0,[["cc.JsonAsset",["_name","json"],1]],[[0,0,1,3]],[[0,"tree_structure",{"boreholes":[{"object_name":"BHD3","parent_guid":"956ae123-d0ba-4cd1-897d-b129d2af06ab","guid":"0ee2e915-c562-4a09-b30e-d38a1b2ee87b","top":"999.43920000","bottom":"3063.24000000","outer_diameter":"315.341"},{"object_name":"BHD1","parent_guid":"956ae123-d0ba-4cd1-897d-b129d2af06ab","guid":"191d603f-753e-4742-a775-22d10a932b96","outer_diameter":"583.2","top":"0.00000000","bottom":"187.75680000"},{"object_name":"BHD4","parent_guid":"956ae123-d0ba-4cd1-897d-b129d2af06ab","guid":"2555ef71-3e52-4492-b99b-814e08ee7cc3","outer_diameter":"216.789","top":"3063.24000000","bottom":"3945.02640000"},{"object_name":"BHD2","parent_guid":"956ae123-d0ba-4cd1-897d-b129d2af06ab","guid":"96776517-d5c8-49a3-b342-6122ae512541","top":"187.75680000","outer_diameter":"485.7496","bottom":"999.43920000"}],"tubings":[{"object_name":"Tubing Section1","parent_guid":"46ba8840-cbeb-4769-9072-e489a2d2f030","guid":"da7330c2-f952-4ad1-b7fc-0a80b9dcd40d","bottom":"3500.47560000","thickness":"25.4516","outer_diameter":"88.9","top":"6.70560000"}],"casings":[{"object_name":"Casing1","parent_guid":"a3fe94bd-fa41-4391-81b5-e8824bf25123","guid":"25ecad3e-e80a-4d54-bf70-d9cd61afb7c4","top":6.7056,"bottom":3063.24,"thickness":"83.843","outer_diameter":"315.475"},{"object_name":"Casing1","parent_guid":"c3d5ed4c-e9f0-42cf-9ced-2c5902e54d3f","guid":"26f9ab1c-3d74-4246-901f-89c0ce4bb72e","top":6.7056,"bottom":999.4392,"thickness":"42.192","outer_diameter":"508.2"},{"object_name":"Casing1","parent_guid":"c3d6f276-09a4-4256-a14b-12f4cde5e62a","guid":"e7dc43b0-d3ca-4b43-9fec-28a859228b8c","top":2965.0944,"bottom":3945.0264,"thickness":"61.5062","outer_diameter":"216.789"},{"object_name":"Casing1","parent_guid":"f1f62e59-8362-4dbb-849d-60fd7da58b52","guid":"fddd37b5-5c5a-4c14-801c-57b9c764bd03","top":6.7056,"bottom":187.7568,"thickness":"22.1252","outer_diameter":"583"}],"perforations":[{"object_name":"Perforation2","parent_guid":"e7dc43b0-d3ca-4b43-9fec-28a859228b8c","guid":"b721a5f3-5169-4f17-894e-d71867618eb1","top":3506.4192,"bottom":3734.4096},{"object_name":"Perforation2","parent_guid":"e7dc43b0-d3ca-4b43-9fec-28a859228b8c","guid":"dcfbedf1-0d89-4f45-a422-f2f723b18e55","top":3849.624,"bottom":3863.6448}],"packers":[{"object_name":"Packer1","parent_guid":"da7330c2-f952-4ad1-b7fc-0a80b9dcd40d","guid":"52b1ad26-6e1b-4ec4-9fd4-58befc4e4d01","top":3465.7284,"bottom":3467.862}],"x_nippels":[{"object_name":"XNippel1","parent_guid":"da7330c2-f952-4ad1-b7fc-0a80b9dcd40d","guid":"2b15c353-d13f-4f02-8b26-b01c7828d1b6","top":3489.96},{"object_name":"XNippel2","parent_guid":"da7330c2-f952-4ad1-b7fc-0a80b9dcd40d","guid":"2cfa1227-9a99-4ef1-8307-973614f5b6a2"}],"ssds":[{"object_name":"SSD1","parent_guid":"da7330c2-f952-4ad1-b7fc-0a80b9dcd40d","guid":"77ee2f79-1e34-4de3-b027-9541d8099066","top":3445.21536,"bottom":3446.526}],"whes":[],"valves":[],"well_references":[],"mandrels":[],"fishs":[],"pressure_gauges":[],"ytools":[],"well_depth":{"max_depth":3945.0264,"min_depth":0}}]],0,0,[],[],[]]
